t,model_1,model_2,model_3,model_4,model_5,model_6,model_7,model_8
0,0.7739560485559633,0.4388784397520523,0.8585979199113825,0.6973680290593639,0.09417734788764953,0.9756223516367559,0.761139701990353,0.7860643052769538
1,0.781844665717949,0.3993162629795426,0.8969214054823197,0.7127740103310427,0.0914463664932765,0.9843418898202888,0.7984076927353622,0.7643552755967957
2,0.7797611507517238,0.353858249485158,0.9452315120141584,0.7355812702380564,0.09808091592921861,1.0022589015832477,0.8817009801370779,0.7346439813635187
3,0.7663277159019702,0.29247662527951546,1.004899831835604,0.7824927550620965,0.1018357952815678,1.0004935928158092,0.942393642724135,0.7209659488343768
4,0.770185621308416,0.2463093809461508,1.0467034862141422,0.8322499506461694,0.10801210467878189,1.0037065751686436,1.0195374120322565,0.7129715663969576
5,0.7890316002232929,0.2039616127617878,1.0928818641646,0.8936353203147407,0.08129660393606819,0.9996108427015866,1.0823061405774148,0.6910911601015003
6,0.8007829124201741,0.19715913692957077,1.1173907509002894,0.9736027837199654,0.018286766164365323,0.9882316399409301,1.1455757018665278,0.6834131039492933
7,0.8278501688054263,0.20843656836565003,1.132876463629134,1.0392333735757604,-0.022387655783289558,0.9731437025700564,1.1771565717216814,0.6507778781192654
8,0.833004484235744,0.23026698042441124,1.1507726269975285,1.117022155830401,-0.07058201624131336,0.96235521733152,1.2211470245538956,0.6128572146665509
9,0.8481148887107157,0.23620475787727888,1.1596558513933806,1.1823855801666308,-0.14310644605369946,0.962995192056993,1.2524417993295913,0.5771119613744128
10,0.873219595054634,0.2518303870942619,1.1829733779182325,1.2422786309044482,-0.22146989238038273,0.9618206146598787,1.2444418904154395,0.5107955521526235
11,0.8674926036109857,0.24437561788176654,1.214064251582902,1.278929901905501,-0.30437113816450195,0.9897563940540298,1.2288756723747216,0.4642863128474917
12,0.8411756357645425,0.23269986368466025,1.2223574426152972,1.306167599313156,-0.3643374604854055,0.9776713256266555,1.2238017732160564,0.42541846518248483
13,0.8028889194127562,0.1892730605793085,1.2318488389203905,1.3202035949398565,-0.4161026684369016,0.9666791394490962,1.2547984338745026,0.38314185536246026
14,0.7436304391955285,0.15202632269394198,1.2457849408120834,1.3639301489093292,-0.44660596084442744,0.9642164420550214,1.3169657088644158,0.31639752604737525
15,0.673029603829781,0.0959230537898576,1.2503078254276705,1.3746867370841462,-0.4613816817010734,0.9569078289620884,1.343136391542408,0.2302813745769761
16,0.6129691929801823,0.061366028126581734,1.2992528258784444,1.450061441360998,-0.46615213988166415,0.927837901496616,1.3203245359375926,0.1544572409616638
17,0.5377338871648932,0.019249183059371226,1.3320636757916018,1.5185192304976123,-0.4468480325661045,0.9037331831301848,1.295106090320837,0.059266392102404336
18,0.42881329758918396,-0.031635995181316295,1.3620313688127703,1.6230862448395953,-0.42559610375882656,0.9028084241902997,1.259983977992919,-0.05766106242612315
19,0.3037580706264993,-0.09619346230353537,1.4380947072806387,1.7040581439588938,-0.3866575828123711,0.8817398377080624,1.247448577109308,-0.16013437894605498
20,0.18145307514178743,-0.1584345338633779,1.4957133808470082,1.7909559257760965,-0.3598397278200527,0.8343193025359458,1.206964393398079,-0.2536248464787722
21,0.100572883351404,-0.21398603060742746,1.5477982871158744,1.8799000852814154,-0.30515967884545436,0.7941753359836703,1.1593158066529115,-0.3177034230505089
22,0.03332398657244848,-0.23241940456471794,1.6013761946457683,1.9370170768987645,-0.2838066020551358,0.7929544385832309,1.1525919864665786,-0.3825922424353306
23,-0.039130794349320375,-0.21725222199631755,1.6275209128066987,1.9712715145783364,-0.24913595465761562,0.7829709472629766,1.1460898288679846,-0.44789131516631525
24,-0.10041443983911842,-0.17137114736638315,1.6543839351552607,2.018212139525092,-0.26204208146476077,0.7723972539240259,1.1210575770987166,-0.5371789228104686
25,-0.1782699869249768,-0.13525535373077682,1.7003840098411238,2.0331466904072464,-0.2736179609346147,0.7515258875964085,1.0899499447840015,-0.5995798034489048
26,-0.24020012968771443,-0.07104021896473539,1.7406292287755682,2.0317727638639487,-0.2896206817500507,0.7371204826812522,1.0643459944102016,-0.6831082944904567
27,-0.2970103522824248,-0.004932500331177481,1.8351546175584574,2.072435054988116,-0.3239023678567069,0.7170092606915901,1.0072986835827324,-0.7756689713600138
28,-0.34392292132672897,0.08483353904290604,1.9086509266772909,2.0964370724837638,-0.4044848120363823,0.6942662792418012,0.9293474298447024,-0.8754402398816841
29,-0.40809706498667886,0.1680035016578706,1.9391684186496347,2.086434860157008,-0.4334267211731701,0.643872802789532,0.8307688676919138,-0.9291483097961164
30,-0.40410322476738686,0.2208179399198496,1.9599257390231473,2.0845701727465435,-0.42226668039877185,0.5739322050454524,0.7316346542777519,-0.9627891795994373
31,-0.3905874115908785,0.26258055081453213,1.9766528209219,2.0520551148116546,-0.41699036848292337,0.5015320318284211,0.6426486280896273,-1.0071655000229445
32,-0.3672034671689881,0.3249000452698248,1.996019054149353,2.029031322180528,-0.41078928245734986,0.43275375435913366,0.5419773750837802,-1.042245977589375
33,-0.3471641144417151,0.43090823127352373,2.0495982608621053,2.0157865103849604,-0.42196072864904316,0.34254011406025536,0.4729744508684909,-1.06969717999284
34,-0.31739039646148826,0.49260587938235917,2.1212366621363525,2.013365086845229,-0.4574035874776757,0.24629354055096514,0.4133185688217399,-1.0946026289992685
35,-0.2956385107055075,0.5489045770630607,2.18365875788226,2.0144761359612766,-0.4581707425652967,0.09746706822767934,0.3513493479580019,-1.1143158678247567
36,-0.2683555924186085,0.5940720770031495,2.2036782556091046,2.0228658346004984,-0.42027481490033736,-0.07821626417400032,0.3117943697324284,-1.1403894920212312
37,-0.24380807410554456,0.6134376755128105,2.215218111080786,2.0599059291830395,-0.3712451163333149,-0.20637976487651172,0.30054487063083923,-1.1553411583868705
38,-0.1814923702199331,0.6416511795429504,2.2446953522577267,2.0884624909138982,-0.32317889301584996,-0.3437299613241698,0.3119856159562875,-1.1958929114284191
39,-0.10479856604994096,0.6641909211259457,2.29888861257024,2.1323811655682103,-0.23680509514953776,-0.45787202909322067,0.28770243526539535,-1.235914195276987
40,-0.058146329616055384,0.6740145860408026,2.3841643049305006,2.1883595958810242,-0.17037854667499258,-0.588974402887147,0.26536644349020816,-1.3011375268604615
41,-0.028833857830832296,0.6903238115900403,2.4910097751523304,2.2551514250179645,-0.15850811659774905,-0.7067158110293678,0.24575797096788285,-1.353844823731561
42,0.03515253750578358,0.6596821654546668,2.579295497458466,2.3318167297590615,-0.18259673392448741,-0.7855669247367401,0.23536662633127614,-1.3849865623490198
43,0.08317292469071502,0.6487689109099172,2.6870586839614594,2.4098560800980264,-0.20023955708427968,-0.8544304241558294,0.20618986192640168,-1.4178700556120882
44,0.12538178500976097,0.6469742665209125,2.8117904609557427,2.460323876560643,-0.2197955259820414,-0.8867243955018678,0.1618447974728353,-1.4674954435436187
45,0.17000390628489123,0.6641503812025509,2.930541143469795,2.537984745396482,-0.21921520055759983,-0.8985799993367083,0.13210740788609754,-1.4625916564744528
46,0.2078073666694336,0.6356675697551382,3.0792265099136733,2.6015281003817052,-0.21625161133444126,-0.8805603794665113,0.06802927526464292,-1.4859207413046407
47,0.20791499085206497,0.5908514716011327,3.2303081813998706,2.67361548411275,-0.2072585231183745,-0.8950321461165833,-0.04450043391940367,-1.5068679887757819
48,0.1974680010118593,0.5585483564893731,3.3895319295645905,2.7451896710511443,-0.18171799680464049,-0.9036550022967774,-0.13955105050226502,-1.5425248470504023
49,0.18352712735504403,0.5322604444179216,3.5591420648061503,2.804380828376273,-0.14580084269195295,-0.9177910517657539,-0.23247745901966682,-1.5578502527453284
50,0.12571711265168906,0.47829692538481705,3.6871290202462355,2.808431185061444,-0.12684600023397793,-0.9144624473169417,-0.32712774849257853,-1.5679866674705358
51,0.0951532423327767,0.456719546748711,3.8071706566956003,2.8425461245369736,-0.10677888519091594,-0.930025066617728,-0.43033671942550655,-1.6107220643121414
52,0.046258288829136934,0.42821554052827265,3.9391789186128072,2.9134329001999064,-0.11862164415627437,-0.9360256657288918,-0.5516525116271047,-1.6407061417264173
53,-0.003123103618126094,0.36019643574890153,4.0853441191987105,2.967247109876931,-0.141810637435431,-0.965646625991878,-0.6815327330507697,-1.6596230941468175
54,-0.05426705854993546,0.30292739199574714,4.232293878434596,3.047901501440488,-0.17150511240141225,-1.0268100829574047,-0.7810551246975859,-1.6850064998116638
55,-0.07793077100232754,0.25709437329118684,4.368963825389325,3.1323220395058753,-0.15608889652511146,-1.0384726705655785,-0.8740499874169314,-1.7055387646331377
56,-0.07634583631000086,0.1946434499699499,4.5062479549409735,3.2119432398068275,-0.134424290447481,-1.0681868217976505,-0.9979389166989376,-1.7713977350046142
57,-0.09982561668852119,0.12505878164754047,4.630111914833264,3.3309011857659656,-0.08911215109596418,-1.1179282768350043,-1.1078584021565276,-1.8430663029439174
58,-0.12848997677011945,0.0630973542419224,4.761627763803554,3.436325184108065,-0.022277175260409524,-1.19071717411809,-1.2121401675976817,-1.8530656921259205
59,-0.15073290415850507,0.036281648837687454,4.8886142737224105,3.549464553182382,0.039946340956950974,-1.263677055890666,-1.328637601030203,-1.8529432809544273
60,-0.19090463558135617,0.025689667035835154,5.0335192133157065,3.6651428452276944,0.09265796509640592,-1.32283796462682,-1.4462123021413418,-1.8319075206545627
61,-0.27001926542018195,0.008122875435444585,5.1266629964141455,3.7416066462018884,0.17323089460697155,-1.3590238832049102,-1.5739963352978454,-1.8455205470110494
62,-0.41146704379379023,-0.020718505596957926,5.269271715369125,3.8239715650607544,0.23726276094269272,-1.3830009962197707,-1.7302952566699408,-1.8651012745526192
63,-0.5436180493297872,-0.05004308668152936,5.4224329608275745,3.9099247395165233,0.3130372580378402,-1.4211717257528347,-1.8587034691289042,-1.8472788282576278
64,-0.6908547073317776,-0.09775091700696228,5.597805189806016,3.9873016736361437,0.41641343088752236,-1.4673293181518672,-1.9481554627759028,-1.8274073920328453
65,-0.824955360406675,-0.10808519719539461,5.756319373537359,4.039765631233631,0.5045905944804728,-1.5010645363092572,-2.0681462939583777,-1.7942752448992414
66,-0.9643982737330317,-0.0922368920260538,5.853370560106266,4.072018245532166,0.5506483256132972,-1.5515880460768094,-2.1765996056758454,-1.766807334301153
67,-1.1025347360744844,-0.0807404840491338,5.950117086665231,4.080106677640341,0.6102088086586964,-1.584767718794406,-2.271020541782286,-1.728268353135531
68,-1.227136267303237,-0.02431327403004304,6.0400788020270735,4.080924098633652,0.6499418786258253,-1.639370502896598,-2.3885476662149716,-1.7115304331342251
69,-1.3470881833510489,0.03676764180677234,6.126686002815143,4.064582759382227,0.7078170338690443,-1.6747093778067832,-2.503768279104907,-1.7102290579637585
70,-1.4487792824791268,0.09899772904768128,6.176581733642584,4.047538402358284,0.768657730233479,-1.728399095987347,-2.6089828340357086,-1.741523571274131
71,-1.5155077971486255,0.18602132191767212,6.218336218678668,4.039473349246792,0.7725688984197077,-1.8052610479986437,-2.7155057575781365,-1.795226982087312
72,-1.5629254951041602,0.3133546432839336,6.23169307450324,4.0130852977888445,0.7815492937639489,-1.8422542501324477,-2.844035655511331,-1.8406766053765211
73,-1.5672468277843146,0.397386841204022,6.215736509232693,3.9785445172261507,0.7784399585465438,-1.8592274749793514,-2.960735382938436,-1.923543105729698
74,-1.5598271668584935,0.46430326711033776,6.229075278333834,3.9316974917585457,0.7612509396046903,-1.8632519679185808,-3.054540569230784,-1.9922464746808586
75,-1.5904695908226008,0.5399046875404937,6.218619277847725,3.8924537513542528,0.7130857018153336,-1.857095169593149,-3.161691596014596,-2.086195257867253
76,-1.6036183900996743,0.6171293727177382,6.194957138740697,3.887621543509385,0.6574754382246464,-1.8505282617680048,-3.2574719839684856,-2.1893027534148524
77,-1.605574821625799,0.678564466525949,6.163273593882827,3.9135005617731604,0.5813774763149339,-1.8982411076814456,-3.3124417062415223,-2.2302501681953757
78,-1.6164955278429785,0.6936187904414071,6.126231593500864,3.9316854893981046,0.5048375863099707,-1.9684644247699408,-3.351703561283959,-2.257421870778476
79,-1.6602861242680358,0.7235549123782467,6.1369411246982395,3.952806320569429,0.4245818708761925,-2.038351864408398,-3.375244764028689,-2.32193398179885
80,-1.698211303004578,0.7432631888806254,6.188433802730687,3.9689764894560384,0.38563404198703305,-2.1294253243626686,-3.3844773924623732,-2.3760784802495194
81,-1.7536727100231406,0.7659527492706106,6.264464592293057,3.977097947284964,0.3108001695529894,-2.2163378280580317,-3.4134271833185914,-2.4351707298809906
82,-1.8081854046822605,0.749368288631258,6.300566623625953,3.995592674361776,0.22801964536319327,-2.3562541335008143,-3.4233798384560874,-2.4852179941528068
83,-1.8759351909481372,0.7041678323563569,6.353552786115105,4.020974382485018,0.20265475405716454,-2.479778920970264,-3.4241655550471877,-2.536495517201693
84,-1.9220338242862969,0.6752047289124009,6.431879062562682,4.033429870359082,0.16882210024229624,-2.6078405416501904,-3.4072291217559325,-2.5517044930556176
85,-1.9760875112926621,0.6381915513366293,6.513312005415452,4.03976718963663,0.15796964598464935,-2.779850352216265,-3.4096251969517235,-2.583648381211286
86,-2.079323251705667,0.5814814219662383,6.570209788275022,4.041290806169345,0.172546488343795,-2.948739395000764,-3.4349511638943824,-2.6152686172169783
87,-2.1539369697205966,0.5057836965036354,6.603901608601091,4.055227776292413,0.18144079044253003,-3.0947057878178694,-3.459315984031199,-2.6296181652776984
88,-2.2479650520849512,0.4336006363076935,6.631197665967892,4.041279750314109,0.15492994770876573,-3.2180400464103296,-3.4903100969962235,-2.666109117953593
89,-2.3394423567407303,0.3902499975708955,6.606130071855272,3.9945632671509195,0.10910827891578236,-3.302534639340439,-3.5134356672793556,-2.683617787895905
90,-2.4518405693682697,0.32403330756739124,6.592329276566772,3.951485661799039,0.07784786657117947,-3.3870009535552503,-3.529185476249655,-2.696715374117222
91,-2.5412274638376675,0.2791727058323937,6.542997082099615,3.860311484180354,0.07055018289677001,-3.4406856115881617,-3.5669696192817684,-2.750745264987443
92,-2.6239305276644793,0.25736930968589716,6.53632693283726,3.785240780120972,0.05530554538670824,-3.5116570445459314,-3.6026084964962184,-2.8087654235256907
93,-2.72519604668983,0.28246765239289684,6.569907870021202,3.7393264320863504,0.020232298886060228,-3.559961092543766,-3.622162948531532,-2.853988953148373
94,-2.7934549249016105,0.320518408628342,6.618356981712888,3.7099494589026296,-0.005466957745149638,-3.64573269545637,-3.638869853830662,-2.909388136575175
95,-2.886918973019517,0.3942731899164702,6.7030451489699985,3.7124344309648856,-0.024174506056201747,-3.6970148223976538,-3.6544718965531278,-2.957482675862684
96,-3.0001605818895567,0.4732172275735492,6.784849178272668,3.68566696758127,-0.04309147917443693,-3.7475156502378755,-3.6290991475161576,-2.9831772702963946
97,-3.1074841825176858,0.5537771167143195,6.863551624939083,3.6557005827309537,-0.08526641157730827,-3.798869059350667,-3.621678300128727,-3.035545040391984
98,-3.198010335825318,0.6390579551660918,6.898366954758892,3.6244892052308124,-0.10306803751840625,-3.823969835172282,-3.5916900859655163,-3.0844242962242516
99,-3.3029059694416443,0.6958425092441811,6.939147118011727,3.603319355999168,-0.09119398341145638,-3.823219279482503,-3.566158005156238,-3.1586808784962837
100,-3.4096922618070047,0.7546452728026644,6.973369554363876,3.570285894134523,-0.07425895564235249,-3.8337750892530265,-3.5559465129631436,-3.2222603345618395
101,-3.5201280669102912,0.8159662382568399,7.0119898965666545,3.5134256983433563,-0.06893155792701838,-3.811653438793676,-3.572230483237041,-3.3299906501518723
102,-3.6666742050207013,0.8748720736319748,7.049370553012898,3.456778653665523,-0.036720420146721285,-3.8504042657074953,-3.5788469044190214,-3.397419630343425
103,-3.8311109807657364,0.9223398854517602,7.068047001570496,3.3829657756772065,-0.013415279472507997,-3.8552980099636325,-3.5440472894684785,-3.4689889909603844
104,-3.944727476324735,0.968229820889932,7.1250033511725634,3.310757320359964,0.011655146248219835,-3.85177480935826,-3.4399063260895515,-3.5179445594103163
105,-4.068478062776243,1.0334927106360887,7.1710210618006105,3.231208140798983,0.055788994734586386,-3.8477326739093884,-3.334743264062145,-3.5641396303700392
106,-4.178514892393483,1.1049949822428018,7.1714259895802694,3.170541438205595,0.07575752901698005,-3.8761434343429606,-3.2361444702552924,-3.6061470754594787
107,-4.29855714979785,1.1915045775213144,7.141798721873771,3.1038085318891357,0.08164945334533828,-3.9041753797885033,-3.1362400211691015,-3.6685913197884563
108,-4.396401841314821,1.2750974688193002,7.071347613230783,2.9966168348797297,0.08697131369303188,-3.9357467073955297,-3.0436433385791566,-3.728539058650775
109,-4.484310626914557,1.3757008050171062,6.979573999134096,2.868578641226545,0.06757961634675573,-3.959279095545986,-2.927838620448073,-3.795134453622779
110,-4.623763682342723,1.4331715356653094,6.873761798342987,2.7344711602014735,0.04002565654999947,-3.9807721641525826,-2.8247949980980946,-3.8349361318396005
111,-4.771360291494178,1.4684867140250402,6.78394819016037,2.5727310526530225,0.022563166176714437,-3.99889742042764,-2.7302004711679038,-3.837232792719336
112,-4.925490051625914,1.5481058010988873,6.69358446193948,2.3905229946886086,0.007537249682720976,-4.040181988172652,-2.6571454423661622,-3.830536686073428
113,-5.059490130578034,1.6098318411073098,6.629817970386203,2.2433079999366017,0.02537931265220592,-4.067564283865083,-2.5572559721775217,-3.8662313161290625
114,-5.193898812114804,1.649084752215423,6.571905774712158,2.0906757619240643,0.03861387017727393,-4.051490754996106,-2.466156025517547,-3.8908885371838706
115,-5.326780759682724,1.6880680183548455,6.517023725886355,1.9556999666868047,0.07724376846785094,-3.9993840529269153,-2.3726877606870915,-3.901130228054949
116,-5.478752722626557,1.7231371374904711,6.485911291121908,1.846836608630245,0.11867390931620209,-3.930062314476793,-2.2729190318741184,-3.884020170509611
117,-5.616655819974517,1.7484991445383256,6.463864116897195,1.6778863360876595,0.16659412846385602,-3.9457876538208,-2.216676552858713,-3.8576637628234995
118,-5.7369858818612895,1.7466003535198367,6.426996215658141,1.5480298053371129,0.20129509388058053,-3.910573503331125,-2.1632891270161694,-3.823501209233837
119,-5.815145029992504,1.747726357439315,6.369558616704416,1.422212520714231,0.23346473075797028,-3.907636611426415,-2.1182916514891796,-3.80764270306907
120,-5.868726952911154,1.7495700061978883,6.308669392509958,1.3003118001739509,0.269015045795822,-3.8910541793170053,-2.097898294750965,-3.8158677297231836
121,-5.89492840149416,1.7421013397597387,6.2191430772009255,1.1944300695352745,0.31314910893188097,-3.909528702507287,-2.073393238695962,-3.807233367066898
122,-5.911448242089314,1.749137642225613,6.102692666037012,1.1012447083270676,0.3483096853760314,-3.9378750156758167,-2.030647220235146,-3.7659531389109233
123,-5.887018756465946,1.785222127348584,5.989611044535491,1.0206056777948882,0.39885891367808607,-3.962094391865844,-1.9871145265654437,-3.7083172421672126
124,-5.8651363453877465,1.8031950365670655,5.8729156046085285,0.9581732657518699,0.44694761259103355,-3.977495472897357,-1.93077504022047,-3.6619448501789327
125,-5.827437831846101,1.8287404784656827,5.73444367665951,0.9311133898846633,0.48143488369417187,-4.0291355568433485,-1.9006204159336801,-3.640722341663806
126,-5.790457613110238,1.8468851648086282,5.595363553341549,0.9192634650169076,0.521797635357195,-4.071126591362994,-1.8628094799642214,-3.606783768564963
127,-5.80246167496729,1.855973529777781,5.41448645709521,0.908812360868375,0.560038653028752,-4.08763926176566,-1.8003327784478247,-3.570007936200731
128,-5.825053947555035,1.8754560087753933,5.230848618425404,0.8988526712943061,0.6184182982147867,-4.115798445103532,-1.72296438995359,-3.519923740370237
129,-5.867866400588043,1.9157412985589448,5.072013090039532,0.8916700983272632,0.6568328904115942,-4.161762099916629,-1.6614869215931958,-3.460210973289909
130,-5.929906659322592,1.963795395142347,4.893352840332871,0.8802835417397982,0.6957785513266384,-4.150752799807215,-1.6338810409730036,-3.3705685982181794
131,-5.985494326884531,2.018640870487806,4.726271942904855,0.8794107069507238,0.729340425791104,-4.107780414218924,-1.6178624594663569,-3.260090807201354
132,-6.052711097900994,2.0693967998227603,4.543575278985689,0.8887561536018221,0.7935382052897181,-4.0686863846756385,-1.6070473050960374,-3.180060498718313
133,-6.121694169967477,2.081998970301879,4.349600875927817,0.9027054180748499,0.8840201275470928,-3.9687311921211186,-1.6098893496922941,-3.0719374184756707
134,-6.181777617272013,2.0905890320614238,4.174998299030328,0.9173417139885878,0.9724464771605421,-3.8829043662898037,-1.6438519744518314,-3.0037370010913733
135,-6.224249892561615,2.092562388624872,3.995796897975071,0.9314363867020808,1.074226734843583,-3.7973358213770854,-1.6907863023264271,-2.9115258604846885
136,-6.229286892749245,2.105495700360416,3.8473273449583423,0.9725973955620103,1.196187768570537,-3.702314028660498,-1.7219944670933358,-2.8123053132360454
137,-6.258609259273081,2.1334509926306455,3.6759643475496206,0.9939325700135041,1.3411993516582736,-3.593255431581238,-1.718382986768354,-2.7241206172465358
138,-6.312230574831627,2.1546321811176754,3.5154509891759593,1.0159672271343403,1.5043102217442683,-3.4977280166416205,-1.7070803503658756,-2.662451531161878
139,-6.35310142416076,2.1748238194756193,3.346196962772579,1.0316268465500007,1.6551472534358151,-3.413017824785664,-1.6567344514929265,-2.606067218914188
140,-6.39738241384148,2.147105446708783,3.1654105534393056,1.0406209843932976,1.7831063014779733,-3.3016472214843016,-1.6125939683420603,-2.5236916330119397
141,-6.438069596475529,2.1216054323092277,2.9916779156402393,1.0492503021112825,1.943100821780088,-3.247713221011541,-1.6154164327951404,-2.457580495421169
142,-6.476397566662061,2.112811622683107,2.83721046107187,1.0488561541305939,2.117882125768407,-3.1734400510468457,-1.6139821158004224,-2.373249236998582
143,-6.50671260491149,2.091902361377304,2.706070038110399,1.050955098161834,2.283954324441535,-3.069944296429215,-1.6674226814911925,-2.324834923248146
144,-6.562055592922976,2.063915808121646,2.575793424544765,1.0192442688650178,2.4196941098927374,-2.9908723346529027,-1.6632415457031504,-2.238553150454477
145,-6.623838428410275,2.029198613002681,2.426333659080138,0.9464518878939778,2.5460333856510564,-2.9380666196255723,-1.6611667822717429,-2.192367156865031
146,-6.699570388982213,1.999540680523619,2.29253557743532,0.8866340827559611,2.6365286663003116,-2.868789836429787,-1.6770890345118274,-2.1343393297834505
147,-6.771753639566644,1.940588684555318,2.1583570042550133,0.8379769495125281,2.7362055055030563,-2.8061294776206958,-1.657963556881076,-2.056684268336057
148,-6.846066688131602,1.9013575220188672,2.0741282966069923,0.8355904412931906,2.8034395906468563,-2.7673200469515766,-1.6065905596498282,-2.0065758436507624
149,-6.94623700303911,1.853216286344194,2.0035075792248342,0.8310335985182749,2.852764926744314,-2.745526936772848,-1.5737145532693375,-1.978639273365202
150,-6.990379940068366,1.8141346622455516,1.9562464329649085,0.8157684932323309,2.8954658783263185,-2.7407790341826535,-1.6017763481416925,-1.9829127557604915
151,-7.072802394743831,1.7267004247300803,1.8846193047775293,0.8308935528734016,2.9350381594127577,-2.707410643703488,-1.6192452034752456,-1.9694740167291014
152,-7.171248395907785,1.6553537985948896,1.8328680786351383,0.8323681340876615,2.9851435294934068,-2.6630503295862655,-1.6481289862227217,-1.9818130800247689
153,-7.291250011455621,1.5895088264881267,1.7910165767591288,0.8160475699329247,3.0333380973741253,-2.608150435210035,-1.6617454152223161,-1.9588340957404087
154,-7.376697386758475,1.5045665458973843,1.7889037820820022,0.7886700383995067,3.102487003225703,-2.554475308378505,-1.6838969630430713,-1.977425391281963
155,-7.461708692369888,1.3890025101650099,1.8085260955980123,0.7965778983341185,3.150358992343861,-2.49673166681366,-1.7211611810079077,-2.0091404678405045
156,-7.525151204640165,1.2783549344870886,1.8660670062250433,0.7933073192386202,3.2181832217240944,-2.4396969771941186,-1.738768050826626,-2.049268539755612
157,-7.586529760593441,1.1706571041386888,1.9020360659020474,0.8050048622776186,3.2971562494230646,-2.3722417355938243,-1.721126980341986,-2.054981873090961
158,-7.6532234068921055,1.0766858687395362,1.9222625372752304,0.8166397689093484,3.358769820360108,-2.2719333826779717,-1.6962354255069998,-2.0652848192747078
159,-7.689892248217066,0.9388767590172302,1.8964409819219794,0.8454884235314262,3.418654828355143,-2.1710402978869476,-1.702247566934874,-2.075592139717577
160,-7.679927815123599,0.8263877685499699,1.8757052580480504,0.8630771015345827,3.4667226687618666,-2.122802179513478,-1.7021980863420407,-2.06647851709437
161,-7.705693522906965,0.7047334962794255,1.8301246243755607,0.8582004367000511,3.5135830026794648,-2.1235846161686944,-1.6884155752114993,-2.0409638637867777
162,-7.735785769862929,0.5336916090155319,1.7645424245688126,0.8811361304496921,3.4959824793730356,-2.132098790725524,-1.7017078091790396,-1.9987342042743532
163,-7.779469411366608,0.38023450261632485,1.7148834141108782,0.9439842975086306,3.4747240624164877,-2.13177864882419,-1.7475422814650776,-1.9319975712489244
164,-7.8379743656128795,0.22191140724141542,1.6672098783595173,0.9687428998431205,3.459644019666764,-2.109841310495936,-1.784534830714325,-1.9041265995026415
165,-7.896322532130512,0.08809673731856885,1.5799269139789174,0.9682310733928571,3.464918089894216,-2.08296132157132,-1.8104657878767743,-1.8360696084071366
166,-7.9412761316844,-0.02431637597902861,1.5576222105029842,0.9629640230072104,3.452087255635032,-2.047859513822833,-1.8252840593488393,-1.7831931810782786
167,-8.007067150415521,-0.07945914215932487,1.5437411843787434,0.9415859262234021,3.460378787274298,-2.0169533562448274,-1.8450160182894526,-1.7203877714808151
168,-8.098455983917013,-0.12395978604386154,1.573329179440447,0.9317007837014354,3.4598433839514207,-1.9989317253335883,-1.8729368600258862,-1.6664014104818523
169,-8.193723386639341,-0.14574605102613614,1.562682041009098,0.9415848053988648,3.4508447019910924,-1.9733823672400823,-1.9246618754457938,-1.5854052737079034
170,-8.256374174764607,-0.14498590629787772,1.5186963130201485,0.969514336776234,3.4513487890986814,-1.9850054333603946,-1.9743439461125756,-1.5003077047964368
171,-8.303458202354856,-0.1403000841432105,1.4834220038831896,1.028998344039695,3.4792426235036924,-2.0601566438935484,-2.0286400551189816,-1.4231467232320782
172,-8.38736614368457,-0.1337425558909139,1.4778344828684897,1.061211754977873,3.5132639198545057,-2.1520287294062954,-2.0952457682735393,-1.316808264790641
173,-8.479210649622742,-0.11717751859646083,1.4306846288221102,1.133457181998848,3.559059869755257,-2.243388031183895,-2.1456515845646438,-1.2473112500625478
174,-8.540020739023582,-0.10868525298358067,1.3813291344002125,1.1910965839029513,3.589582262083274,-2.31464606077689,-2.1878148589137845,-1.166715554586996
175,-8.597986979189688,-0.08914210401525825,1.3250756720623418,1.2957123354017246,3.5835185448436078,-2.3541457731817004,-2.1972826290780625,-1.1092044940628631
176,-8.603206834010994,-0.04831627305928965,1.2933502111899413,1.39572389447624,3.5729006889032444,-2.3963530236897608,-2.197544481127487,-1.0232375089637817
177,-8.604111386926979,-0.029912232641056292,1.2816457729009936,1.511332432461664,3.577452357837171,-2.4197800493510018,-2.2038513777349378,-0.9623417024003033
178,-8.62438410748248,-0.04899846422627859,1.2758248885524026,1.6192945720284735,3.5719380191584764,-2.508125369797317,-2.237733796029608,-0.8794279272801725
179,-8.658504681167758,-0.059067309198625885,1.2391983768538093,1.7540290371985114,3.5634788410284917,-2.5855679237937346,-2.217916076256117,-0.766751209428803
180,-8.697774241856393,-0.08189751851230696,1.1971237829852093,1.8934284505620635,3.553089738634421,-2.6679762778496965,-2.166282072352315,-0.6622621382871834
181,-8.683659949187112,-0.10155715195027931,1.197073851719712,2.0338477984460575,3.5647525443744335,-2.762467009887273,-2.1363204052249314,-0.552718183051895
182,-8.648146648655992,-0.11933364096625913,1.1682617875869912,2.136829877195994,3.5439204697429156,-2.8917584373536127,-2.1054086543912702,-0.4234946787122501
183,-8.614708999266783,-0.18676571607895126,1.1366247930936346,2.2310225557770416,3.5709979557055607,-3.047167887705439,-2.0847783078662765,-0.26258832405660865
184,-8.572881410750501,-0.23823012418603814,1.109131834228435,2.3278833622407813,3.6141094450666182,-3.2129075298986765,-2.0455454919608766,-0.14042856792443284
185,-8.525802670571181,-0.2831245424450505,1.0692327909138872,2.4193938702041695,3.6411449389587904,-3.394324160166648,-2.016181382851688,-0.04906273594964847
186,-8.473859896674057,-0.35149093323972336,1.0472489899833262,2.4799101776705688,3.6541659188908375,-3.5806365157186932,-1.9586542975387027,0.045120312133230756
187,-8.429248773228027,-0.4052872987753366,0.9792461257963277,2.5364361733781418,3.7112016247021926,-3.754673895644126,-1.9024849818630658,0.14685073098473364
188,-8.366841863903737,-0.5010585591151033,0.8770254410823513,2.594838125519784,3.7494004193437385,-3.89067162982808,-1.8561716455767145,0.20023720659748925
189,-8.33590895319045,-0.653525881397832,0.7746805844377411,2.646107582909893,3.776197999523346,-3.995745008595135,-1.7853742578363483,0.2471443574575743
190,-8.354255889528995,-0.7845670018140322,0.6898712028548114,2.70173177325586,3.8236022550738973,-4.121611066481723,-1.6731996035462122,0.27025269401940405
191,-8.354932345095387,-0.9467863076732803,0.588500939572994,2.7884817878148005,3.862802400451445,-4.2224025810648245,-1.5613351984024717,0.2898586780370482
192,-8.325078357506612,-1.1061865004335345,0.45238067486890493,2.852933307167222,3.912367560300242,-4.309310667443303,-1.4901045012382013,0.2922875717299081
193,-8.309724754105067,-1.2657888321172626,0.2923000602472329,2.9001114454235024,3.9431622364150045,-4.374621341345562,-1.404342836397965,0.2913345997769553
194,-8.30390510720812,-1.414282244482561,0.12196430186659579,2.9192867318219284,3.9513931933535797,-4.450861335429226,-1.3488853198634958,0.29405303832633245
195,-8.282059504147746,-1.5908395831051871,-0.03929277353034932,2.932585340011423,3.9668489688028954,-4.523578649458955,-1.3287041471754686,0.2684076720851115
196,-8.2606482500889,-1.7355648140916249,-0.24199772992318422,2.9529496991320916,4.008132712193273,-4.596081860402332,-1.297229131296791,0.2283234715782938
197,-8.242976668090986,-1.9092985116545944,-0.48698854849859097,2.9933767244807443,4.0253271122552885,-4.675145823069258,-1.2983296574639485,0.15871560007370955
198,-8.230075794337605,-2.090659366348624,-0.7112781376948315,3.041901465234651,4.048836208511589,-4.744921311722825,-1.264095187733093,0.06871599974495875
199,-8.219048345223538,-2.2376244639469136,-0.8960772776919153,3.0562083672721356,4.0641853699482295,-4.780839515023357,-1.2202114473170567,-0.012417406448539975
200,-8.213439846286986,-2.385823356262388,-1.0651916865143323,3.0641566672154728,4.077814986402602,-4.813204287660694,-1.1936840342350086,-0.07759536780413079
201,-8.142947280928043,-2.566346933168508,-1.2186052345991274,3.0547091850219084,4.103674236171423,-4.842909764913948,-1.151447401169646,-0.11322930496122517
202,-8.071676676840685,-2.7125308725195394,-1.4167681997798935,3.081297671469132,4.1366271681259885,-4.847028658179111,-1.1385998506532398,-0.16565812454975465
203,-8.000706323495415,-2.851786593690536,-1.598693410650769,3.13080722981868,4.128460927280018,-4.82916635035956,-1.1262094885261593,-0.22002220409941675
204,-7.966179624485609,-2.9728310186181686,-1.8255034535773143,3.1923398411040855,4.087338497698928,-4.8110018026655075,-1.1171033407160813,-0.2455164116753129
205,-7.9373741114507625,-3.1033446323846756,-2.052300975015295,3.2792583458084565,4.060264154389049,-4.802368430884635,-1.1137396029772784,-0.3047790539457083
206,-7.901322326861568,-3.266683240965647,-2.2509479403528547,3.3647069915194567,4.087917393073291,-4.818766506518726,-1.1128396462682069,-0.32086762867892615
207,-7.840432849268027,-3.437422693858442,-2.434654493477648,3.4459279119134605,4.120492694684804,-4.849967647865225,-1.113981952316754,-0.37188531210272047
208,-7.779566393316849,-3.589562405936083,-2.61426097160695,3.4869741505030727,4.173543475648345,-4.871457704499873,-1.1313013341743792,-0.4266265280917923
209,-7.755299248126972,-3.757023999915123,-2.7969129531250387,3.5534364015755435,4.209641987025049,-4.877557645678959,-1.1597918631690036,-0.47308640727220996
210,-7.735407159741651,-3.896590375135089,-2.9823910806411664,3.581412739458948,4.213034253077226,-4.895245732120673,-1.214787695737997,-0.5080506729711399
211,-7.726924568559377,-3.976080614937303,-3.1974517813836894,3.6125436367488772,4.191035109466944,-4.923082203613152,-1.263871501121224,-0.5932636100566339
212,-7.713570513976363,-4.00904603834404,-3.4118986356766263,3.6479274694633665,4.193053868811602,-4.953192963243102,-1.3234917809730646,-0.7251029132637805
213,-7.686551173907362,-4.042893713151034,-3.6382674465691185,3.684372899041219,4.181920200639527,-4.993614152394169,-1.366573964440153,-0.8802773918266719
214,-7.637464119106456,-4.106302216937114,-3.868136270895658,3.761994441210253,4.196551634693962,-5.029831790466732,-1.4285329337014196,-1.0395280350253095
215,-7.589192931200732,-4.165701250551422,-4.088543589764093,3.8350454702967403,4.205657923865829,-5.096482171385668,-1.4989434858054276,-1.170364530478305
216,-7.573932187742982,-4.226368922578129,-4.316260797784648,3.906933819223483,4.205618796467328,-5.126764506614549,-1.5545059666139784,-1.3239920116764234
217,-7.544425366834417,-4.301324953098486,-4.545494176495883,3.9822449573198075,4.194585818855986,-5.135567862087944,-1.6246088948501167,-1.4837781844749702
218,-7.531070786335538,-4.3851812490131215,-4.738687215886571,4.067850851076441,4.222339999314068,-5.093224983900648,-1.7142542101641234,-1.6340004290773893
219,-7.544684573493318,-4.482232527273545,-4.936309676551378,4.125537748532059,4.225185556280569,-5.056225546407343,-1.8266239106423101,-1.7578810301865182
220,-7.578139264255774,-4.51160736957485,-5.134144277346373,4.181950664543954,4.198924125973533,-4.9829267093184475,-1.9083423298652615,-1.8689283605345457
221,-7.640036640993518,-4.534802815169092,-5.34716310861135,4.268242192519065,4.192069911456433,-4.911158732306339,-2.040453844144537,-1.9964131741495825
222,-7.68346034246898,-4.529717584648683,-5.524729207342209,4.314620651154665,4.192301322233243,-4.820271543582423,-2.203041293251323,-2.117700497420905
223,-7.718589556693275,-4.531611916223713,-5.734832599276617,4.351397355715805,4.185202390556663,-4.737239713916309,-2.3700989740090614,-2.242829507423726
224,-7.752850169670973,-4.52351794548329,-5.941238010973481,4.37717519654148,4.180523504539247,-4.701312461627137,-2.5181369410075765,-2.361714658160855
225,-7.784510177762397,-4.494346001078914,-6.180989434812554,4.3575278782329105,4.182201002929144,-4.667340709670958,-2.654967737524363,-2.4849890269044144
226,-7.799731785682227,-4.445778215380908,-6.3979311143678546,4.333030624205178,4.136665258937939,-4.617866900793335,-2.7576383107380833,-2.5876869129641413
227,-7.833861715840933,-4.384572318296808,-6.584783680708791,4.3446144238239315,4.073815888682936,-4.5759304608081655,-2.838465844250693,-2.6839661764975933
228,-7.891269354204939,-4.317155614087932,-6.749354351240863,4.357585943618686,4.019019055180769,-4.541875682645751,-2.882196679188001,-2.7955715663502154
229,-7.958939502152112,-4.252864101539347,-6.886042478695968,4.336426605463545,3.937662937321986,-4.555088638021298,-2.9230098849163832,-2.9266027649792794
230,-8.031824944569477,-4.176998298703856,-7.0302415311197235,4.32149685746444,3.8536812262563873,-4.552612012656003,-2.951158243792264,-3.066554511482581
231,-8.104837282717254,-4.081586974126442,-7.158434456695648,4.276076575634094,3.788558666264627,-4.574511849367831,-2.9463144322889536,-3.176609124445086
232,-8.167716967659208,-3.9874303825157105,-7.284891839332451,4.248099564692188,3.7184013823575537,-4.590049191802052,-2.922215766206252,-3.2937233829747394
233,-8.241231156892674,-3.924688444534306,-7.428828687042754,4.180637242236126,3.6680714304875845,-4.564361108298712,-2.8674507093487094,-3.441342283115179
234,-8.294861393470388,-3.83328433875534,-7.575783274064861,4.1188164694136296,3.575360122679627,-4.533993026934003,-2.8392058238655173,-3.5771162635412015
235,-8.380719676826072,-3.734311759344555,-7.6924813318752205,4.042574301138218,3.461862018490185,-4.553353490479506,-2.818330370379665,-3.719106380669475
236,-8.496966894418293,-3.630158001562345,-7.813406130412171,3.9460900539828603,3.3416382035356387,-4.547790833111227,-2.785016609644279,-3.8569044630649065
237,-8.593558142065916,-3.557170712172976,-7.927560871565633,3.857724246640985,3.216919715615677,-4.532769164205665,-2.7708195595106626,-3.976412703751322
238,-8.672979890059922,-3.5530624651978133,-8.009391830990879,3.7056295938004955,3.0846618771055527,-4.49557109969342,-2.7644271087439543,-4.122730447648009
239,-8.772887254849323,-3.526197320018828,-8.130097389938667,3.5863846820794643,2.9577848101293203,-4.486895708556013,-2.7713931299193164,-4.284478132100569
240,-8.848429867069822,-3.4842978483863822,-8.28320928253529,3.464077421822561,2.8179501783198493,-4.449730324784988,-2.8081999840808427,-4.402266779034907
241,-8.920939841687826,-3.4704749935161763,-8.443809891650588,3.3299607823784743,2.6566059441780636,-4.412302817158015,-2.870623521954053,-4.562920464208349
242,-8.998314141557668,-3.4976563714779516,-8.613199298620263,3.1822218163320066,2.4838479381419667,-4.332003789756148,-2.9286644819445184,-4.7100548025649065
243,-9.111541199891379,-3.5381017407575475,-8.769304922078616,3.018960635645988,2.340032734867154,-4.282612826948189,-2.9902067353979453,-4.862936937056742
244,-9.21543258366355,-3.590846634968988,-8.923662630012073,2.858582484626782,2.1869868822823766,-4.22484438362635,-3.043341350066879,-5.010156432877391
245,-9.323754739198133,-3.623143018476713,-9.075575866554765,2.6993652813176,2.0439342625608012,-4.132027530942166,-3.1237905099543584,-5.132800430448822
246,-9.468993381051694,-3.648966207294199,-9.184673518543065,2.5590358985656114,1.911849566568117,-4.056383551994164,-3.199522975339429,-5.2549485240401
247,-9.62454506205317,-3.679980052483024,-9.28388035032579,2.408567489763896,1.7683400957743345,-4.0149377399176025,-3.262731940266795,-5.358795414117111
248,-9.767139073994464,-3.687861337096226,-9.376162060424031,2.2743881324409987,1.6388001098985823,-3.9776111155056775,-3.3346499938641787,-5.407940002075575
249,-9.912709316473196,-3.71023803574644,-9.454124930335988,2.152549378914577,1.4843250293698795,-3.917046973373695,-3.405078399517655,-5.479468535108323
250,-10.024419025925319,-3.717505368364643,-9.556465675296334,2.076541579457101,1.3523048598582597,-3.8597390304247523,-3.436427011403769,-5.543858634756351
251,-10.131171206554333,-3.7391740938016973,-9.640678811658374,2.0149913363046443,1.2272139567293467,-3.8229611165087083,-3.4633028728333577,-5.606589977719088
252,-10.262403170381296,-3.792670107643746,-9.70804407747499,1.8983386138866305,1.1129707177726738,-3.798712360448752,-3.4595816577482976,-5.6772190381377206
253,-10.372327020685358,-3.852366584095875,-9.769497593965673,1.803994693303941,0.9940965805130058,-3.7533923975413144,-3.478266263440564,-5.737729349318967
254,-10.456123827085264,-3.894319349731981,-9.785025424436705,1.6972969466483594,0.8503274353449873,-3.7325724417293458,-3.4812486941078498,-5.784080249655327
255,-10.53344426474394,-3.959284560062443,-9.782629189408137,1.568548855973603,0.7396616479222672,-3.64889921815137,-3.475887906500104,-5.81507491067923
256,-10.617919359985935,-4.061479110273639,-9.793829980801906,1.4218002893187562,0.6021731439045104,-3.5308965166320445,-3.4646937668845714,-5.836029766247284
257,-10.705080650617296,-4.162429447891151,-9.782902723693677,1.281666071040662,0.4834257422943451,-3.423176739527321,-3.4617101054735646,-5.887396436164868
258,-10.832107690175981,-4.264180970538873,-9.771258525002853,1.1197798217766208,0.3698448293473624,-3.3196410074297176,-3.507085431748934,-5.956657582051397
259,-10.943676680244995,-4.352190020752072,-9.785993491616631,0.969530891093979,0.28480468261365843,-3.203906182339189,-3.552322646681062,-6.032919939128129
260,-11.063739791292923,-4.42533785009656,-9.795629052433444,0.8408683083750215,0.20696533132254968,-3.0756499799981554,-3.59318284752801,-6.087823005246548
261,-11.15832755767951,-4.512818050322738,-9.845214165228562,0.7531524042803501,0.1387570112849107,-2.992143657862113,-3.6479615275270687,-6.1227212841808125
262,-11.254439699808216,-4.6073742819601335,-9.860995351702861,0.6464042428776526,0.056111855605058464,-2.908085906555552,-3.6912704358239488,-6.14477608151892
263,-11.325370332717085,-4.692762349068439,-9.865044521307818,0.5391973943028311,-0.020999065609689255,-2.8258265054492733,-3.7276041581707364,-6.148453623739325
264,-11.38034099915807,-4.772892290578868,-9.886983839479422,0.4388640634882621,-0.09488093747975809,-2.7433604029536776,-3.7127817885917893,-6.1636592042245315
265,-11.423120462747846,-4.825124196876394,-9.905634802323933,0.3958232052877722,-0.17352193130109805,-2.6577707502640346,-3.7165623769557703,-6.1859648377210075
266,-11.458194621702615,-4.855820573729501,-9.916218039624761,0.3830890539432255,-0.25035436433126695,-2.583888094335936,-3.6596909908013147,-6.198339767708239
267,-11.507603169163293,-4.900506341406966,-9.947351078759706,0.39193393761929585,-0.3314928996735938,-2.5108516596707364,-3.6070832710866303,-6.193739283704299
268,-11.573475062763286,-4.967008348165864,-9.971912025677621,0.4137744352345489,-0.4011388596807886,-2.45956698236782,-3.5419569157512596,-6.206002059888474
269,-11.647715320309635,-5.051292697075607,-9.966150140078868,0.4486866442105375,-0.45377445854807336,-2.3829580437301634,-3.417194129023403,-6.2558711548360435
270,-11.734754167257018,-5.145140922282422,-9.979701253882437,0.4577577488071578,-0.5104787236809328,-2.3373836381150483,-3.2911777065403776,-6.302090785425864
271,-11.806684943921656,-5.222943582909157,-9.979091168844224,0.45802562051250584,-0.5169175671740085,-2.288845913655738,-3.213108530320763,-6.368413237551496
272,-11.913938011738141,-5.296468496413085,-9.9812352356679,0.4478057816034768,-0.47806879364186106,-2.2304594451702013,-3.1227067599666767,-6.4522390031817105
273,-12.038169985127679,-5.3654941682625505,-9.97940354190184,0.3965885461250283,-0.44519424638544264,-2.1746776387700395,-3.041635959729961,-6.550061443072952
274,-12.168254733278024,-5.435023248312288,-9.975633082572577,0.3614557233285297,-0.3897947470101192,-2.1282667378781785,-2.974818662133798,-6.63320648260202
275,-12.278176336452804,-5.510784891205806,-9.954377410775088,0.3499837357977268,-0.30828223517526954,-2.0444119176985645,-2.9307158832458966,-6.711883496746304
276,-12.382349682506154,-5.584951443614996,-9.948702482802657,0.30586717140330966,-0.22877297351778358,-1.9819307933843895,-2.8868953706166556,-6.804382013546707
277,-12.505903469390166,-5.6501705977955305,-9.939936593296775,0.27690957388875026,-0.10436177523053664,-1.916373342873558,-2.8344191255608653,-6.916350608319814
278,-12.652055692107874,-5.676735651869303,-9.95225863390396,0.22605655716480103,0.01295458468547675,-1.8561105285619344,-2.804747351743295,-7.0295401818378584
279,-12.763410626944165,-5.71999501822717,-9.995128036614922,0.19882322539194527,0.13541322020775626,-1.81273607313664,-2.811937496614781,-7.153720561106308
280,-12.870421043433298,-5.7350261959425985,-10.059032646790932,0.17106163820263348,0.26684561749563146,-1.8247770969337376,-2.7956519727855893,-7.298132320006206
281,-12.964657294182043,-5.743789811857922,-10.0954899374703,0.1570071740341867,0.3385485635013915,-1.8537642669806993,-2.777090364507126,-7.4396833737572
282,-13.043502031808156,-5.734464474201055,-10.116518969178852,0.13886409969989583,0.3653810115444718,-1.8914869488744717,-2.750146561813542,-7.598540016646451
283,-13.104288800462667,-5.705293111797084,-10.133659717471003,0.05311997859062212,0.362292912582648,-1.88514702490401,-2.7367709058294785,-7.79382061863136
284,-13.134415259391544,-5.677281677407597,-10.125236207904534,-0.022143952215700022,0.3696129125716554,-1.8710069635885644,-2.708467719854949,-7.92841229754703
285,-13.141323033636098,-5.686008276159768,-10.107246218705422,-0.06812040055683137,0.4034601201612989,-1.867113082755494,-2.655530743484632,-8.035529441806865
286,-13.090362180544748,-5.711069093629275,-10.101501550772804,-0.11864305649654625,0.42465326685583216,-1.8833153649426446,-2.667015918237431,-8.147010904583992
287,-13.0336902728127,-5.745905645970698,-10.052767677349367,-0.16634048737440563,0.4736550434988293,-1.892861994884735,-2.6594478050323502,-8.24667426325488
288,-12.94924500563232,-5.777749528799918,-9.995376901313783,-0.20346159328798785,0.5137604724967031,-1.89287561338171,-2.602295702142637,-8.347400713426559
289,-12.859642481665015,-5.779876425139552,-9.915358825602391,-0.23846465684115814,0.498566438478506,-1.8813347246871992,-2.597630157563331,-8.41022204537923
290,-12.770730532932092,-5.759543586024462,-9.859513471958895,-0.30643268967542353,0.48996275144492624,-1.8711222761876116,-2.6041890772230283,-8.46800922694646
291,-12.624382433856248,-5.721566830336352,-9.782992883747557,-0.3521313182856439,0.5148710280009362,-1.865670581925035,-2.6563659105147237,-8.527123963565481
292,-12.467200777461033,-5.7071743085134825,-9.714241987488892,-0.4110134571666606,0.5721202858422896,-1.8437331040489555,-2.6913650109632115,-8.569383535443135
293,-12.318711122493754,-5.68908392001062,-9.675430168922707,-0.5158418180370806,0.62986299688749,-1.815647857695959,-2.6975741786114638,-8.574393991724504
294,-12.142539716904547,-5.6942145369104376,-9.646435826927272,-0.604688159488827,0.7413336821002425,-1.755870849331136,-2.678442406396816,-8.587825127486443
295,-11.994925825724456,-5.681448106412961,-9.643502736101897,-0.6944237827589756,0.8446643200894944,-1.6634640942499561,-2.668198495601438,-8.655127986519688
296,-11.843412903872778,-5.68495060125334,-9.639763041131859,-0.7816114009161346,0.9367082187756652,-1.558005124260362,-2.6927426810290145,-8.730626492124593
297,-11.684180075384507,-5.702009324367877,-9.672184342556177,-0.8494902862230078,1.0492630819158504,-1.4588252261997625,-2.7599054977008035,-8.786564109012483
298,-11.570025109699476,-5.711310149582334,-9.722828873306232,-0.9399100221240348,1.1463087935177434,-1.3687029810050024,-2.838115107934306,-8.82654103956932
299,-11.471552306827846,-5.698228199336239,-9.76465395440051,-1.0414066245514526,1.2191392150927691,-1.3199259852434744,-2.9059132461658863,-8.872447942194603
300,-11.431047048666509,-5.69777929532315,-9.824535514834619,-1.1025951747903315,1.2502528283207819,-1.305817422946313,-2.945501801736432,-8.885721353194056
301,-11.409225378343919,-5.711486705184861,-9.867643554878676,-1.2127598308812233,1.2381932049089168,-1.2986916784425786,-2.948454322892947,-8.908074314613364
302,-11.386237776259954,-5.699156445697354,-9.861484818076864,-1.3303149781543364,1.2263600820797818,-1.2511798278272206,-2.9852966285379257,-8.906332216700203
303,-11.387169781809222,-5.685151347397643,-9.861059144941375,-1.463414158687807,1.1931357880015536,-1.1998627566583426,-2.998035882780193,-8.907578213377423
304,-11.38648740919058,-5.6590746636208005,-9.882380811709382,-1.573318352882018,1.1798937772464448,-1.0928926851277878,-3.018548119677485,-8.919004930698637
305,-11.36864455559071,-5.6159860880093895,-9.91460130762736,-1.6867423288825822,1.1794139204188614,-1.0097764633676631,-3.0472145637726684,-8.927856956972509
306,-11.329423978663987,-5.5885711772273465,-9.986407747727338,-1.8373515283118649,1.1507967241435932,-0.9601793755330783,-3.0779048873263624,-8.962850550338132
307,-11.307878509200455,-5.579836098576835,-10.064473921037107,-1.950858171911447,1.138411985757176,-0.912701477400278,-3.117369555730298,-9.005781840738294
308,-11.280081679348118,-5.558475356275162,-10.158931730093487,-2.05787374883681,1.0812180896905863,-0.8628634100423259,-3.137818815573841,-9.052829091499154
309,-11.213055912525071,-5.5578877418171055,-10.24380453320031,-2.160339612604123,1.0246411644034448,-0.8180735674422092,-3.154850671146874,-9.07856304579697
310,-11.118574315249425,-5.557379825078725,-10.306202674546551,-2.27337416914522,0.9880203699809852,-0.7925618654276563,-3.1466430363669686,-9.053578869622985
311,-11.031546676562177,-5.605924067067964,-10.377736192179112,-2.3532114324586364,0.9655977882053048,-0.7627598712422163,-3.1162912732193786,-9.019011194036768
312,-10.921641256838747,-5.631482158546687,-10.411666777392925,-2.421033908269631,0.964538551108521,-0.7413155468975521,-3.1009061708336496,-8.948007417572125
313,-10.812396624568379,-5.637764668861106,-10.44113392250844,-2.4985801489433217,0.9637778608106147,-0.6888336363800045,-3.073874778067999,-8.918823533198951
314,-10.713427236278372,-5.603879752896168,-10.473908353532906,-2.612509005050903,1.0053850649529539,-0.6237170609955534,-3.0497604900566757,-8.899403996103722
315,-10.595204192496942,-5.583808199985299,-10.479368268797963,-2.7086175631935117,1.0503831630707285,-0.5586025044156944,-3.0307643206857446,-8.857574211975363
316,-10.502241954868802,-5.601007573100047,-10.470815889470858,-2.785805775313375,1.1038698749087061,-0.48762659215661736,-3.0198854605383225,-8.800227268472309
317,-10.414946539805577,-5.628239167906504,-10.469665230868054,-2.813951699582271,1.1158870065668864,-0.4090238737549826,-3.0470965939772254,-8.748167843163627
318,-10.341712100832684,-5.700731833036506,-10.459872960215264,-2.8491882370487125,1.0803636008345012,-0.31557797804632015,-3.040859457123029,-8.665391195877355
319,-10.264112873785853,-5.768569973622252,-10.42087181820422,-2.845043707031329,1.0719637321566968,-0.24785779794267077,-3.0304319693244595,-8.576925501196955
320,-10.230857873648725,-5.82252098376995,-10.332995090941816,-2.8267969958349033,1.0969303750031947,-0.17943352913766572,-3.0221630674120825,-8.484357603789606
321,-10.217508061945944,-5.895325111747099,-10.221196769342047,-2.7787761125277903,1.0984868747615408,-0.09278536248170119,-3.0162520947630926,-8.388819750533646
322,-10.19453493920541,-5.942254680923544,-10.11313872859884,-2.7016240925782142,1.1068842309601141,0.003487580478746366,-3.029268988724401,-8.2497897070587
323,-10.162204867943801,-5.9708946645326275,-10.04644371783599,-2.6467258501144317,1.1425416400930029,0.10136195671760352,-3.084428453798034,-8.094494297141887
324,-10.143650653400556,-5.966544641779052,-9.985047523093359,-2.5899951391199325,1.2027784045704026,0.1742740612229252,-3.1590306751535895,-7.9513574959757305
325,-10.107528003493554,-5.992171440228675,-9.964019525629597,-2.5176820038015673,1.246520325865353,0.23477012022864613,-3.271422328242036,-7.830559973889954
326,-10.073380695978633,-5.995713017411762,-9.961288158819015,-2.4119244685578733,1.2727680130508257,0.27696697925190855,-3.343818038758399,-7.711073935156284
327,-10.053284402032768,-6.002546398004517,-9.928437715369531,-2.2786695183415153,1.27943926515296,0.31610514648519583,-3.4105779957959395,-7.619615197651818
328,-10.035438078414755,-6.008919086789587,-9.871733935057602,-2.1250784712255903,1.278415608714362,0.34850226762009306,-3.4591459275383407,-7.54581460853706
329,-10.005321677041936,-6.016938789949611,-9.83954175493242,-2.0005624957991253,1.3098003512152716,0.37578184209319065,-3.4686060300823547,-7.487189304824713
330,-9.970199549486443,-5.971055629943132,-9.83260307020924,-1.92470874144859,1.368384886518522,0.3832094242018863,-3.478056135876252,-7.444596795776231
331,-9.93083722623621,-5.948721263680398,-9.830034902406062,-1.8425894983405646,1.4014937229363462,0.37461127240264536,-3.494801452681883,-7.436083196562482
332,-9.90289176997026,-5.924847244343654,-9.836529328930341,-1.7706443802448488,1.4325021026431497,0.3517801586153691,-3.4952568749073945,-7.395885830296826
333,-9.88672744776128,-5.891317563692279,-9.848057036609678,-1.6941239725696986,1.4969719580600953,0.3414645736733811,-3.535344280632279,-7.347546681410419
334,-9.843803670292408,-5.864419408070167,-9.836745287832604,-1.636861037901754,1.5250006552668967,0.3348214032027599,-3.6127033295557665,-7.306985932806973
335,-9.77425141394103,-5.8815697570107215,-9.854609544620951,-1.6055381925187369,1.5502120425069634,0.3203327153234933,-3.654908785440424,-7.2471133442530755
336,-9.697102130658962,-5.894606195679673,-9.862787703448728,-1.5950560008237313,1.593330666600719,0.2817023963708376,-3.6763243710788007,-7.163711432469479
337,-9.619095235697824,-5.910931056198798,-9.861605752664644,-1.6490834146575712,1.6410520587227015,0.24246892091890299,-3.697801256458938,-7.06868106900353
338,-9.546660569396973,-5.951935474090801,-9.86364475926142,-1.6988988712531428,1.6889573816307357,0.20881774636079675,-3.6949632991885997,-7.002686694575857
339,-9.473918854774542,-5.9620459661651415,-9.9043689077454,-1.7422065331173717,1.721377977163581,0.16855979433412638,-3.712499350619171,-6.9437833081289675
340,-9.363642498705115,-5.9999244560398335,-9.969210123532246,-1.8124609538998149,1.7908037900645506,0.11997650980636121,-3.72973190629638,-6.896831591369331
341,-9.279997897995313,-6.04116714972862,-9.975841280452938,-1.8480750015551441,1.837686042908833,0.08830258665412814,-3.7646962486349396,-6.891948248382586
342,-9.177738570163989,-6.054407244079905,-9.958750440113997,-1.8924148532029055,1.8784949643286428,0.07497762711118003,-3.7891582563322497,-6.896111073988291
343,-9.116795755226615,-6.0644390069631005,-9.918386752774909,-1.9613166005016591,1.9315465336643944,0.0697324132223238,-3.7956233385467852,-6.880567793392851
344,-9.07442879592567,-6.110125493058398,-9.891971109070278,-2.0068917692090507,1.9698259488098153,0.049230179513154504,-3.842491798404454,-6.826611286101436
345,-9.015716666268013,-6.1363122573515865,-9.845237250066967,-2.037292588485037,2.000728033907504,0.0260911807985277,-3.896577465109084,-6.716438009874981
346,-8.947509572178284,-6.1715605765786785,-9.790431259710395,-2.0887770829639076,2.0637268077040147,-0.010672822340858625,-3.936754237579695,-6.587937413033852
347,-8.87410914658858,-6.20293406660899,-9.738124026911285,-2.138949414012477,2.1106802725730667,-0.05564938036052374,-3.9418375248833977,-6.468288798922108
348,-8.821949681026418,-6.244283647369808,-9.663827119327262,-2.1715061049305624,2.167815405521705,-0.10413545954330099,-3.9338458732313764,-6.369013079746611
349,-8.778203334962383,-6.261880261505661,-9.573695613909702,-2.2243911329359674,2.2029636287703833,-0.14776658073702584,-3.8876563108827145,-6.317534485760721
350,-8.73042059246898,-6.30936630922855,-9.502254755980603,-2.2827807766983454,2.2269515884463207,-0.2011521859429781,-3.8436150718822906,-6.280598499797336
351,-8.717728528367552,-6.337039639893422,-9.417551207506833,-2.319396987531683,2.215288279449207,-0.2451844977997646,-3.7866605481025197,-6.268567692367814
352,-8.705465947406097,-6.365929105249347,-9.295891095483205,-2.3111493482114627,2.166991995559222,-0.23124929090640883,-3.7530188197842884,-6.23520990381142
353,-8.67211550092034,-6.415638407654982,-9.169284185879402,-2.3057186184777936,2.1335057215869946,-0.2128528548712262,-3.694308213747419,-6.201834019643376
354,-8.644186355067838,-6.438353503612115,-9.036029573442885,-2.284195580265344,2.0868331515522724,-0.2187490269733776,-3.651227791058842,-6.184008917886407
355,-8.600073716422276,-6.43810917795726,-8.912906510355832,-2.2317523719996317,2.0730941159151537,-0.2189078252432075,-3.6286794482178735,-6.1318485784342505
356,-8.559531099156057,-6.435055929029005,-8.8035333996507,-2.2018276407004276,2.0272022560536755,-0.20490731767674164,-3.6247759026205317,-6.013883057881498
357,-8.545300956346031,-6.460271269424916,-8.688221896020163,-2.139202656987408,1.9850492578209555,-0.17881110597712163,-3.6622905077548755,-5.91696543207346
358,-8.555789098197152,-6.526600356210654,-8.576060210018142,-2.1298600726973906,1.915438708902396,-0.16603172326753285,-3.7165174990116956,-5.816029723977885
359,-8.558919852139004,-6.569627041115948,-8.452682796601115,-2.095475268155742,1.849265790701482,-0.1471055835019509,-3.756595346616536,-5.716973261238745
360,-8.570775603156271,-6.617936032829937,-8.353755415397355,-2.0533820649198122,1.7842992752089046,-0.14395476659782108,-3.8094775461787025,-5.6499349599885775
361,-8.560151008840739,-6.662071630425171,-8.279067198201323,-1.995313844534033,1.7100490691248655,-0.17241180066285203,-3.8368804111744415,-5.598258427592722
362,-8.55920090585743,-6.703079634892487,-8.18256432013992,-1.9397009877229228,1.612698299274579,-0.18728452349869376,-3.8737578328387747,-5.5069504584497455
363,-8.558323345768319,-6.792014152190702,-8.082895662276412,-1.8433862452284693,1.5554537168398928,-0.1604722276591988,-3.9315939143724985,-5.399811540131485
364,-8.573633952386013,-6.871486680186718,-8.016674518933936,-1.7662977088464322,1.485950027678293,-0.11490823973227603,-3.9686335679601634,-5.291839690406169
365,-8.618375369563257,-6.953954051370744,-7.970448104508513,-1.6736170581799725,1.4462665371843715,-0.048000951393539326,-4.020708458465889,-5.250524256047634
366,-8.700390185060348,-7.000509508379174,-7.935505344010628,-1.6023571528350695,1.4452982220157775,0.04385080893347881,-4.069632914404572,-5.217835285971302
367,-8.781258132700188,-7.039657677945649,-7.866531576655193,-1.525213583968675,1.4606128253207529,0.157255655723541,-4.142265898045728,-5.169901539346825
368,-8.864669440552744,-7.133110037989885,-7.848593815302779,-1.474692995430055,1.4870402109640788,0.2675348958132084,-4.2071446676045,-5.0807400575780965
369,-8.972287889496327,-7.222503208479966,-7.824745556780212,-1.4431620037042194,1.512779632601106,0.33652421918271125,-4.237253037248069,-5.011278014636916
370,-9.029101927413242,-7.308152868403571,-7.779101734616337,-1.4143994499492756,1.5365446301680479,0.3890047834843561,-4.2631922963713595,-4.938178406868134
371,-9.10061181681298,-7.39231612347169,-7.749382328935648,-1.335652972031353,1.557114936844685,0.47341376089303644,-4.292208840834515,-4.862935931565814
372,-9.198092810614979,-7.4822680628493385,-7.716441195183941,-1.225379694223313,1.581620413994674,0.5845432173260638,-4.305447419618747,-4.755065779811439
373,-9.29201997884124,-7.5142754006342924,-7.696000907177181,-1.1377586879399268,1.5778430130044432,0.7422394971657695,-4.299700664700058,-4.660060302370086
374,-9.353321792099697,-7.529305106794811,-7.632618686786504,-1.0891293262888349,1.5683208496566503,0.8817086704580556,-4.3383741338319375,-4.546095461718004
375,-9.417604765491813,-7.527044671121003,-7.519639472849789,-1.0508302017957927,1.549857527494765,1.0168577965856915,-4.353038407588446,-4.450500951581806
376,-9.492782320438115,-7.5012577864974554,-7.403842586939346,-1.0601675474433412,1.5049167778141368,1.1788181208247284,-4.35798207802669,-4.376729386092149
377,-9.568011473413101,-7.476464265103281,-7.277384047255417,-1.0994097186310512,1.4434188712206697,1.3387839050790564,-4.364910934027951,-4.293859238817642
378,-9.666971789932687,-7.4449247798102425,-7.132839882795151,-1.1258041876180407,1.3881064930226277,1.488607377588017,-4.390161186516061,-4.216742536376659
379,-9.732816211439344,-7.417623827102037,-7.015419548626235,-1.1618859126777386,1.340050882914588,1.6225876495890894,-4.403297215073436,-4.131790527151259
380,-9.77549014364828,-7.359856164529259,-6.881602153128935,-1.2170537720311578,1.2741944088863784,1.7481746062689112,-4.425865029888542,-4.076539877808025
381,-9.825906908015517,-7.31558731684287,-6.769498599572858,-1.2765245059931294,1.2379817206541213,1.871937313154114,-4.392033122748283,-4.020239081985351
382,-9.88028890204909,-7.2734394974752075,-6.657264888699752,-1.3232891288998996,1.250016343776122,1.9706099444704408,-4.340683957146151,-3.9621078813674973
383,-9.967082609897828,-7.216165720406526,-6.522297938851922,-1.3868825677368826,1.2612494683829383,2.025768850069769,-4.320050017967826,-3.8834485870007103
384,-10.059966022486734,-7.186549220447433,-6.388948446765776,-1.4589778317217235,1.2613930444387613,2.0947016428985696,-4.32642492337148,-3.828966838952464
385,-10.14475993108202,-7.136736883584627,-6.234580323272207,-1.5423395646669378,1.2824898278775423,2.1426538413636056,-4.291645801096661,-3.8025610691442115
386,-10.195608454971557,-7.104094639176269,-6.042913046669504,-1.6083108775027026,1.279812951884182,2.176530822498158,-4.241137892159328,-3.753937743087131
387,-10.245495801368268,-7.072085917468404,-5.843871844577585,-1.6680365222754419,1.2483462717434208,2.1905353027456127,-4.187897936911331,-3.680566570245459
388,-10.256754314936432,-7.024246824092872,-5.648358685880412,-1.7080318972940183,1.2035439233585146,2.200413210546745,-4.155748102578344,-3.6387866896853005
389,-10.259991520187722,-6.974651481743574,-5.44724480811551,-1.733816071789742,1.1664073832431643,2.2222435499764637,-4.126160183008555,-3.58986327088273
390,-10.279303947635325,-6.919269030697604,-5.241240350422228,-1.7732855695250653,1.1322866711012265,2.2290381964099892,-4.109824707057443,-3.568540208099222
391,-10.269347165941676,-6.8428262572710565,-5.033518729298988,-1.7666819502386597,1.0956403321466233,2.303285379040002,-4.0993937173002175,-3.5425770016355647
392,-10.268782807887893,-6.761880169895281,-4.817498271414239,-1.7629557599027572,1.1005549736910307,2.379167743110622,-4.083436039928226,-3.5382377618583227
393,-10.258888743944645,-6.687978326653944,-4.625879490237869,-1.7767783746777364,1.1649663285275231,2.445364458558461,-4.1008554308557645,-3.5497281905430547
394,-10.250642475143776,-6.6055477291147895,-4.431436020757736,-1.774780297390588,1.2117376008058667,2.5158638179735044,-4.136993137377759,-3.5744997361115507
395,-10.263329116288393,-6.5538118440784405,-4.222918277157741,-1.7574842982328915,1.2780092110557038,2.583717276298138,-4.153954010372577,-3.6374163327699307
396,-10.256082201766969,-6.500702233493365,-4.0108038237849835,-1.7325555197360156,1.3188960165621886,2.6146808739988114,-4.185988854910125,-3.6845551651694857
397,-10.233766719821404,-6.480836222652759,-3.8312331418642733,-1.7250452217391576,1.3497488977587366,2.613639909348485,-4.248220001386925,-3.7477138518398228
398,-10.210638317561925,-6.488362404329588,-3.6632304392428985,-1.6942404780954732,1.349950455049573,2.6080347254359504,-4.284425333369211,-3.817067369713572
399,-10.201493979669326,-6.469495719599317,-3.5104747583869136,-1.640278712062273,1.3597338922214193,2.5950435612227554,-4.3080941924065925,-3.8757877427304686
